digraph Tree {
node [shape=box, style="filled, rounded", color="black", fontname=helvetica] ;
edge [fontname=helvetica] ;
0 [label="RBI <= 43.5\nmse = 0.67\nsamples = 74\nvalue = 5.85", fillcolor="#f3c3a0"] ;
1 [label="CAtBat <= 790.5\nmse = 0.43\nsamples = 36\nvalue = 5.35", fillcolor="#f6d6be"] ;
0 -> 1 [labeldistance=2.5, labelangle=45, headlabel="True"] ;
2 [label="CHits <= 141.5\nmse = 0.07\nsamples = 13\nvalue = 4.62", fillcolor="#fcf1e9"] ;
1 -> 2 ;
3 [label="Walks <= 33.5\nmse = 0.04\nsamples = 10\nvalue = 4.52", fillcolor="#fdf5ef"] ;
2 -> 3 ;
4 [label="Walks <= 20.0\nmse = 0.02\nsamples = 7\nvalue = 4.43", fillcolor="#fef8f4"] ;
3 -> 4 ;
5 [label="PutOuts <= 334.5\nmse = 0.01\nsamples = 3\nvalue = 4.58", fillcolor="#fcf2eb"] ;
4 -> 5 ;
6 [label="Years <= 3.0\nmse = 0.01\nsamples = 2\nvalue = 4.63", fillcolor="#fcf1e9"] ;
5 -> 6 ;
7 [label="mse = 0.0\nsamples = 1\nvalue = 4.55", fillcolor="#fdf3ed"] ;
6 -> 7 ;
8 [label="mse = 0.0\nsamples = 1\nvalue = 4.7", fillcolor="#fbeee4"] ;
6 -> 8 ;
9 [label="mse = -0.0\nsamples = 1\nvalue = 4.5", fillcolor="#fdf6f0"] ;
5 -> 9 ;
10 [label="Runs <= 34.5\nmse = 0.01\nsamples = 4\nvalue = 4.34", fillcolor="#fefbf9"] ;
4 -> 10 ;
11 [label="CWalks <= 30.0\nmse = 0.0\nsamples = 3\nvalue = 4.3", fillcolor="#fffdfc"] ;
10 -> 11 ;
12 [label="mse = 0.0\nsamples = 1\nvalue = 4.25", fillcolor="#ffffff"] ;
11 -> 12 ;
13 [label="mse = 0.0\nsamples = 2\nvalue = 4.32", fillcolor="#fefcfb"] ;
11 -> 13 ;
14 [label="mse = 0.0\nsamples = 1\nvalue = 4.52", fillcolor="#fdf5ef"] ;
10 -> 14 ;
15 [label="RBI <= 34.0\nmse = 0.0\nsamples = 3\nvalue = 4.74", fillcolor="#fbece2"] ;
3 -> 15 ;
16 [label="mse = 0.0\nsamples = 1\nvalue = 4.65", fillcolor="#fcf0e7"] ;
15 -> 16 ;
17 [label="mse = -0.0\nsamples = 2\nvalue = 4.79", fillcolor="#fbebdf"] ;
15 -> 17 ;
18 [label="Assists <= 23.5\nmse = 0.02\nsamples = 3\nvalue = 5.01", fillcolor="#f9e2d2"] ;
2 -> 18 ;
19 [label="CRBI <= 57.5\nmse = 0.0\nsamples = 2\nvalue = 4.92", fillcolor="#fae6d7"] ;
18 -> 19 ;
20 [label="mse = 0.0\nsamples = 1\nvalue = 4.94", fillcolor="#fae5d6"] ;
19 -> 20 ;
21 [label="mse = -0.0\nsamples = 1\nvalue = 4.91", fillcolor="#fae6d8"] ;
19 -> 21 ;
22 [label="mse = 0.0\nsamples = 1\nvalue = 5.19", fillcolor="#f8dbc7"] ;
18 -> 22 ;
23 [label="Assists <= 89.0\nmse = 0.21\nsamples = 23\nvalue = 5.71", fillcolor="#f4c8a8"] ;
1 -> 23 ;
24 [label="CHmRun <= 83.0\nmse = 0.15\nsamples = 12\nvalue = 5.52", fillcolor="#f5cfb4"] ;
23 -> 24 ;
25 [label="CAtBat <= 2546.0\nmse = 0.11\nsamples = 8\nvalue = 5.42", fillcolor="#f6d3ba"] ;
24 -> 25 ;
26 [label="Walks <= 37.0\nmse = 0.04\nsamples = 7\nvalue = 5.51", fillcolor="#f5cfb4"] ;
25 -> 26 ;
27 [label="CWalks <= 150.0\nmse = 0.01\nsamples = 5\nvalue = 5.59", fillcolor="#f5ccaf"] ;
26 -> 27 ;
28 [label="CAtBat <= 883.0\nmse = 0.0\nsamples = 3\nvalue = 5.54", fillcolor="#f5ceb2"] ;
27 -> 28 ;
29 [label="mse = 0.0\nsamples = 1\nvalue = 5.66", fillcolor="#f4caab"] ;
28 -> 29 ;
30 [label="CRBI <= 117.5\nmse = 0.0\nsamples = 2\nvalue = 5.51", fillcolor="#f5cfb4"] ;
28 -> 30 ;
31 [label="mse = 0.0\nsamples = 1\nvalue = 5.52", fillcolor="#f5cfb4"] ;
30 -> 31 ;
32 [label="mse = 0.0\nsamples = 1\nvalue = 5.5", fillcolor="#f5d0b5"] ;
30 -> 32 ;
33 [label="RBI <= 28.0\nmse = 0.01\nsamples = 2\nvalue = 5.72", fillcolor="#f4c7a8"] ;
27 -> 33 ;
34 [label="mse = 0.0\nsamples = 1\nvalue = 5.83", fillcolor="#f3c3a1"] ;
33 -> 34 ;
35 [label="mse = 0.0\nsamples = 1\nvalue = 5.62", fillcolor="#f4cbae"] ;
33 -> 35 ;
36 [label="Division <= 0.5\nmse = 0.02\nsamples = 2\nvalue = 5.21", fillcolor="#f8dbc6"] ;
26 -> 36 ;
37 [label="mse = 0.0\nsamples = 1\nvalue = 5.08", fillcolor="#f9e0ce"] ;
36 -> 37 ;
38 [label="mse = 0.0\nsamples = 1\nvalue = 5.35", fillcolor="#f6d6be"] ;
36 -> 38 ;
39 [label="mse = 0.0\nsamples = 1\nvalue = 4.61", fillcolor="#fcf2ea"] ;
25 -> 39 ;
40 [label="CRuns <= 531.0\nmse = 0.17\nsamples = 4\nvalue = 5.7", fillcolor="#f4c8a9"] ;
24 -> 40 ;
41 [label="mse = 0.0\nsamples = 1\nvalue = 6.6", fillcolor="#eda673"] ;
40 -> 41 ;
42 [label="Assists <= 5.5\nmse = 0.01\nsamples = 3\nvalue = 5.51", fillcolor="#f5cfb4"] ;
40 -> 42 ;
43 [label="mse = 0.0\nsamples = 1\nvalue = 5.42", fillcolor="#f6d3ba"] ;
42 -> 43 ;
44 [label="HmRun <= 9.0\nmse = 0.0\nsamples = 2\nvalue = 5.58", fillcolor="#f5cdb0"] ;
42 -> 44 ;
45 [label="mse = 0.0\nsamples = 1\nvalue = 5.62", fillcolor="#f4cbae"] ;
44 -> 45 ;
46 [label="mse = 0.0\nsamples = 1\nvalue = 5.56", fillcolor="#f5cdb1"] ;
44 -> 46 ;
47 [label="CAtBat <= 1422.5\nmse = 0.19\nsamples = 11\nvalue = 5.96", fillcolor="#f2be9a"] ;
23 -> 47 ;
48 [label="CHmRun <= 7.5\nmse = 0.02\nsamples = 2\nvalue = 5.4", fillcolor="#f6d4bb"] ;
47 -> 48 ;
49 [label="mse = 0.0\nsamples = 1\nvalue = 5.27", fillcolor="#f7d8c2"] ;
48 -> 49 ;
50 [label="mse = 0.0\nsamples = 1\nvalue = 5.52", fillcolor="#f5cfb4"] ;
48 -> 50 ;
51 [label="Hits <= 111.0\nmse = 0.15\nsamples = 9\nvalue = 6.07", fillcolor="#f1ba93"] ;
47 -> 51 ;
52 [label="HmRun <= 5.5\nmse = 0.04\nsamples = 7\nvalue = 5.9", fillcolor="#f2c19d"] ;
51 -> 52 ;
53 [label="RBI <= 27.0\nmse = 0.04\nsamples = 5\nvalue = 5.8", fillcolor="#f3c4a3"] ;
52 -> 53 ;
54 [label="mse = 0.0\nsamples = 1\nvalue = 5.52", fillcolor="#f5cfb4"] ;
53 -> 54 ;
55 [label="PutOuts <= 98.5\nmse = 0.02\nsamples = 4\nvalue = 5.88", fillcolor="#f2c29f"] ;
53 -> 55 ;
56 [label="mse = 0.0\nsamples = 1\nvalue = 6.11", fillcolor="#f1b991"] ;
55 -> 56 ;
57 [label="Runs <= 33.5\nmse = 0.0\nsamples = 3\nvalue = 5.8", fillcolor="#f3c5a3"] ;
55 -> 57 ;
58 [label="mse = 0.0\nsamples = 1\nvalue = 5.83", fillcolor="#f3c3a1"] ;
57 -> 58 ;
59 [label="Errors <= 6.5\nmse = 0.0\nsamples = 2\nvalue = 5.78", fillcolor="#f3c5a4"] ;
57 -> 59 ;
60 [label="mse = 0.0\nsamples = 1\nvalue = 5.79", fillcolor="#f3c5a4"] ;
59 -> 60 ;
61 [label="mse = 0.0\nsamples = 1\nvalue = 5.77", fillcolor="#f3c6a5"] ;
59 -> 61 ;
62 [label="CHmRun <= 69.5\nmse = 0.0\nsamples = 2\nvalue = 6.06", fillcolor="#f1bb94"] ;
52 -> 62 ;
63 [label="mse = 0.0\nsamples = 1\nvalue = 6.03", fillcolor="#f1bc95"] ;
62 -> 63 ;
64 [label="mse = 0.0\nsamples = 1\nvalue = 6.11", fillcolor="#f1b991"] ;
62 -> 64 ;
65 [label="Errors <= 19.5\nmse = 0.0\nsamples = 2\nvalue = 6.76", fillcolor="#eba06a"] ;
51 -> 65 ;
66 [label="mse = 0.0\nsamples = 1\nvalue = 6.75", fillcolor="#eca16b"] ;
65 -> 66 ;
67 [label="mse = 0.0\nsamples = 1\nvalue = 6.77", fillcolor="#eba069"] ;
65 -> 67 ;
68 [label="CRuns <= 211.0\nmse = 0.49\nsamples = 38\nvalue = 6.27", fillcolor="#efb387"] ;
0 -> 68 [labeldistance=2.5, labelangle=-45, headlabel="False"] ;
69 [label="PutOuts <= 282.5\nmse = 0.23\nsamples = 10\nvalue = 5.46", fillcolor="#f6d1b7"] ;
68 -> 69 ;
70 [label="AtBat <= 481.0\nmse = 0.18\nsamples = 5\nvalue = 5.79", fillcolor="#f3c5a4"] ;
69 -> 70 ;
71 [label="Years <= 4.5\nmse = 0.03\nsamples = 3\nvalue = 6.04", fillcolor="#f1bb95"] ;
70 -> 71 ;
72 [label="mse = 0.0\nsamples = 1\nvalue = 6.16", fillcolor="#f0b78d"] ;
71 -> 72 ;
73 [label="Years <= 5.5\nmse = 0.03\nsamples = 2\nvalue = 5.87", fillcolor="#f2c29f"] ;
71 -> 73 ;
74 [label="mse = 0.0\nsamples = 1\nvalue = 5.7", fillcolor="#f4c8a9"] ;
73 -> 74 ;
75 [label="mse = -0.0\nsamples = 1\nvalue = 6.03", fillcolor="#f1bc95"] ;
73 -> 75 ;
76 [label="AtBat <= 522.0\nmse = 0.0\nsamples = 2\nvalue = 5.16", fillcolor="#f8ddc9"] ;
70 -> 76 ;
77 [label="mse = 0.0\nsamples = 1\nvalue = 5.16", fillcolor="#f8dcc9"] ;
76 -> 77 ;
78 [label="mse = 0.0\nsamples = 1\nvalue = 5.15", fillcolor="#f8ddca"] ;
76 -> 78 ;
79 [label="CAtBat <= 1364.0\nmse = 0.06\nsamples = 5\nvalue = 5.14", fillcolor="#f8deca"] ;
69 -> 79 ;
80 [label="CHits <= 179.0\nmse = 0.01\nsamples = 4\nvalue = 5.22", fillcolor="#f7dac5"] ;
79 -> 80 ;
81 [label="CHits <= 162.0\nmse = 0.0\nsamples = 2\nvalue = 5.07", fillcolor="#f9e0ce"] ;
80 -> 81 ;
82 [label="mse = 0.0\nsamples = 1\nvalue = 5.04", fillcolor="#f9e1d0"] ;
81 -> 82 ;
83 [label="mse = -0.0\nsamples = 1\nvalue = 5.11", fillcolor="#f8dfcc"] ;
81 -> 83 ;
84 [label="mse = -0.0\nsamples = 2\nvalue = 5.3", fillcolor="#f7d7c1"] ;
80 -> 84 ;
85 [label="mse = -0.0\nsamples = 1\nvalue = 4.61", fillcolor="#fcf2ea"] ;
79 -> 85 ;
86 [label="Years <= 19.0\nmse = 0.24\nsamples = 28\nvalue = 6.59", fillcolor="#eda774"] ;
68 -> 86 ;
87 [label="Hits <= 159.5\nmse = 0.15\nsamples = 27\nvalue = 6.66", fillcolor="#eca470"] ;
86 -> 87 ;
88 [label="CWalks <= 164.5\nmse = 0.09\nsamples = 18\nvalue = 6.5", fillcolor="#edaa79"] ;
87 -> 88 ;
89 [label="CHmRun <= 63.0\nmse = 0.0\nsamples = 2\nvalue = 6.11", fillcolor="#f1b991"] ;
88 -> 89 ;
90 [label="mse = 0.0\nsamples = 1\nvalue = 6.16", fillcolor="#f0b78d"] ;
89 -> 90 ;
91 [label="mse = 0.0\nsamples = 1\nvalue = 6.05", fillcolor="#f1bb94"] ;
89 -> 91 ;
92 [label="PutOuts <= 809.0\nmse = 0.08\nsamples = 16\nvalue = 6.55", fillcolor="#eda877"] ;
88 -> 92 ;
93 [label="CRBI <= 1165.5\nmse = 0.04\nsamples = 14\nvalue = 6.48", fillcolor="#eeab7b"] ;
92 -> 93 ;
94 [label="Runs <= 64.5\nmse = 0.03\nsamples = 13\nvalue = 6.45", fillcolor="#eeac7c"] ;
93 -> 94 ;
95 [label="Runs <= 40.0\nmse = 0.01\nsamples = 8\nvalue = 6.61", fillcolor="#eda673"] ;
94 -> 95 ;
96 [label="mse = 0.0\nsamples = 1\nvalue = 6.75", fillcolor="#eca16b"] ;
95 -> 96 ;
97 [label="HmRun <= 11.0\nmse = 0.0\nsamples = 7\nvalue = 6.59", fillcolor="#eda774"] ;
95 -> 97 ;
98 [label="Walks <= 33.5\nmse = 0.0\nsamples = 3\nvalue = 6.64", fillcolor="#eca571"] ;
97 -> 98 ;
99 [label="mse = 0.0\nsamples = 1\nvalue = 6.68", fillcolor="#eca36f"] ;
98 -> 99 ;
100 [label="AtBat <= 492.0\nmse = 0.0\nsamples = 2\nvalue = 6.61", fillcolor="#eda673"] ;
98 -> 100 ;
101 [label="mse = 0.0\nsamples = 1\nvalue = 6.62", fillcolor="#eda672"] ;
100 -> 101 ;
102 [label="mse = 0.0\nsamples = 1\nvalue = 6.6", fillcolor="#eda673"] ;
100 -> 102 ;
103 [label="League <= 0.5\nmse = 0.0\nsamples = 4\nvalue = 6.55", fillcolor="#eda876"] ;
97 -> 103 ;
104 [label="Runs <= 54.5\nmse = 0.0\nsamples = 3\nvalue = 6.54", fillcolor="#eda977"] ;
103 -> 104 ;
105 [label="Years <= 14.0\nmse = 0.0\nsamples = 2\nvalue = 6.53", fillcolor="#eda978"] ;
104 -> 105 ;
106 [label="mse = 0.0\nsamples = 1\nvalue = 6.51", fillcolor="#edaa79"] ;
105 -> 106 ;
107 [label="mse = 0.0\nsamples = 1\nvalue = 6.55", fillcolor="#eda876"] ;
105 -> 107 ;
108 [label="mse = 0.0\nsamples = 1\nvalue = 6.55", fillcolor="#eda876"] ;
104 -> 108 ;
109 [label="mse = 0.0\nsamples = 1\nvalue = 6.6", fillcolor="#eda674"] ;
103 -> 109 ;
110 [label="Years <= 12.0\nmse = 0.0\nsamples = 5\nvalue = 6.27", fillcolor="#efb387"] ;
94 -> 110 ;
111 [label="Hits <= 150.0\nmse = 0.0\nsamples = 3\nvalue = 6.22", fillcolor="#f0b58a"] ;
110 -> 111 ;
112 [label="CHmRun <= 131.5\nmse = 0.0\nsamples = 2\nvalue = 6.2", fillcolor="#f0b58b"] ;
111 -> 112 ;
113 [label="mse = 0.0\nsamples = 1\nvalue = 6.19", fillcolor="#f0b68c"] ;
112 -> 113 ;
114 [label="mse = 0.0\nsamples = 1\nvalue = 6.21", fillcolor="#f0b58a"] ;
112 -> 114 ;
115 [label="mse = -0.0\nsamples = 1\nvalue = 6.25", fillcolor="#efb488"] ;
111 -> 115 ;
116 [label="Hits <= 125.0\nmse = 0.0\nsamples = 2\nvalue = 6.31", fillcolor="#efb185"] ;
110 -> 116 ;
117 [label="mse = 0.0\nsamples = 1\nvalue = 6.28", fillcolor="#efb286"] ;
116 -> 117 ;
118 [label="mse = 0.0\nsamples = 1\nvalue = 6.38", fillcolor="#eeaf81"] ;
116 -> 118 ;
119 [label="mse = 0.0\nsamples = 1\nvalue = 6.86", fillcolor="#eb9d64"] ;
93 -> 119 ;
120 [label="NewLeague <= 0.5\nmse = 0.0\nsamples = 2\nvalue = 7.11", fillcolor="#e99355"] ;
92 -> 120 ;
121 [label="mse = 0.0\nsamples = 1\nvalue = 7.18", fillcolor="#e89051"] ;
120 -> 121 ;
122 [label="mse = 0.0\nsamples = 1\nvalue = 7.05", fillcolor="#e99559"] ;
120 -> 122 ;
123 [label="AtBat <= 576.5\nmse = 0.14\nsamples = 9\nvalue = 6.89", fillcolor="#ea9b62"] ;
87 -> 123 ;
124 [label="Assists <= 225.5\nmse = 0.01\nsamples = 2\nvalue = 6.38", fillcolor="#eeae80"] ;
123 -> 124 ;
125 [label="mse = 0.0\nsamples = 1\nvalue = 6.44", fillcolor="#eeac7d"] ;
124 -> 125 ;
126 [label="mse = -0.0\nsamples = 1\nvalue = 6.27", fillcolor="#efb387"] ;
124 -> 126 ;
127 [label="CHmRun <= 48.0\nmse = 0.09\nsamples = 7\nvalue = 7.03", fillcolor="#e9965a"] ;
123 -> 127 ;
128 [label="mse = 0.0\nsamples = 1\nvalue = 6.61", fillcolor="#eda673"] ;
127 -> 128 ;
129 [label="HmRun <= 32.5\nmse = 0.06\nsamples = 6\nvalue = 7.12", fillcolor="#e99254"] ;
127 -> 129 ;
130 [label="HmRun <= 23.5\nmse = 0.04\nsamples = 5\nvalue = 7.22", fillcolor="#e88f4f"] ;
129 -> 130 ;
131 [label="PutOuts <= 624.5\nmse = 0.0\nsamples = 2\nvalue = 7.11", fillcolor="#e99355"] ;
130 -> 131 ;
132 [label="mse = 0.0\nsamples = 1\nvalue = 7.09", fillcolor="#e99457"] ;
131 -> 132 ;
133 [label="mse = 0.0\nsamples = 1\nvalue = 7.17", fillcolor="#e89152"] ;
131 -> 133 ;
134 [label="CHmRun <= 92.5\nmse = 0.05\nsamples = 3\nvalue = 7.36", fillcolor="#e78a47"] ;
130 -> 134 ;
135 [label="mse = 0.0\nsamples = 1\nvalue = 7.07", fillcolor="#e99558"] ;
134 -> 135 ;
136 [label="Runs <= 123.5\nmse = 0.01\nsamples = 2\nvalue = 7.5", fillcolor="#e6843e"] ;
134 -> 136 ;
137 [label="mse = 0.0\nsamples = 1\nvalue = 7.59", fillcolor="#e58139"] ;
136 -> 137 ;
138 [label="mse = -0.0\nsamples = 1\nvalue = 7.42", fillcolor="#e68743"] ;
136 -> 138 ;
139 [label="mse = 0.0\nsamples = 1\nvalue = 6.8", fillcolor="#eb9f68"] ;
129 -> 139 ;
140 [label="mse = 0.0\nsamples = 1\nvalue = 5.3", fillcolor="#f7d7c1"] ;
86 -> 140 ;
}